{"learner":{"attributes":{},"feature_names":["detector_bucket","severity_ordinal","confidence","detector_category","has_cwe","entity_type","function_loc","file_loc","function_count_in_file","finding_line_span_norm","cyclomatic_complexity","max_nesting_depth","fan_in","fan_out","scc_membership","file_age_log","recent_churn","developer_count","unique_change_count","is_recently_created","major_contributor_pct","minor_contributor_count","file_depth","fp_path_indicator_count","tp_path_indicator_count","finding_density","same_detector_findings","historical_fp_rate"],"feature_types":[],"gradient_booster":{"model":{"cats":{"enc":[],"feature_segments":[],"sorted_idx":[]},"gbtree_model_param":{"num_parallel_tree":"1","num_trees":"50"},"iteration_indptr":[0,1,2,3,4,5,6,7,8,9,10,11,12,13,14,15,16,17,18,19,20,21,22,23,24,25,26,27,28,29,30,31,32,33,34,35,36,37,38,39,40,41,42,43,44,45,46,47,48,49,50],"tree_info":[0,0,0,0,0,0,0,0,0,0,0,0,0,0,0,0,0,0,0,0,0,0,0,0,0,0,0,0,0,0,0,0,0,0,0,0,0,0,0,0,0,0,0,0,0,0,0,0,0,0],"trees":[{"base_weights":[-7.847494E-7,-1.3317183E0,6.82394E-1,9.3159115E-1,-2.7810576E0,9.677026E-1,-1.0752125E-1,-5.0043745E0,8.1115656E-2,1.049782E-1,5.823022E-2,-1.7586431E-1,-9.380619E-1],"categories":[],"categories_nodes":[],"categories_segments":[],"categories_sizes":[],"default_left":[0,0,0,0,0,0,0,0,0,0,0,0,0],"id":0,"left_children":[1,-1,3,5,7,9,-1,11,-1,-1,-1,-1,-1],"loss_changes":[1.226145E3,0E0,1.1336621E2,9.771721E0,7.486742E1,3.1492538E0,0E0,6.3270874E1,0E0,0E0,0E0,0E0,0E0],"parents":[2147483647,0,0,2,2,3,3,4,4,5,5,7,7],"right_children":[2,-1,4,6,8,10,-1,12,-1,-1,-1,-1,-1],"split_conditions":[2E0,-1.3317183E0,6.26734E0,2E0,2.8E4,5.261378E0,-1.0752125E-1,2.1E1,8.1115656E-2,1.049782E-1,5.823022E-2,-1.7586431E-1,-9.380619E-1],"split_indices":[16,0,15,23,25,15,0,8,0,0,0,0,0],"split_type":[0,0,0,0,0,0,0,0,0,0,0,0,0],"sum_hessian":[1.3292542E2,5.5768E0,1.27348625E2,1.19482796E2,7.8658247E0,1.178794E2,1.6033974E0,4.615841E0,3.249984E0,9.5761154E1,2.2118246E1,3.4551325E0,1.1607085E0],"tree_param":{"num_deleted":"0","num_feature":"28","num_nodes":"13","size_leaf_vector":"1"}},{"base_weights":[3.5183236E-2,-3.8525767E0,7.663561E-1,8.054137E-2,-4.5576143E0,9.34878E-1,-1.5577407E0,-4.929571E0,-3.9662004E-2,9.7028524E-1,-8.153932E-2,-3.089218E0,7.935634E-2,-5.247641E-1,5.2905427E-3,1.0423986E-1,6.423808E-2,-4.7423467E-2,-4.9937922E-1],"categories":[],"categories_nodes":[],"categories_segments":[],"categories_sizes":[],"default_left":[0,0,0,0,0,0,0,0,0,0,0,0,0,0,0,0,0,0,0],"id":1,"left_children":[1,3,5,-1,7,9,11,13,-1,15,-1,17,-1,-1,-1,-1,-1,-1,-1],"loss_changes":[3.9022498E2,7.504062E1,4.6695305E1,0E0,2.7490692E1,7.5040665E0,3.1922518E1,2.7815918E1,0E0,1.8517914E0,0E0,2.3333279E1,0E0,0E0,0E0,0E0,0E0,0E0,0E0],"parents":[2147483647,0,0,1,1,2,2,4,4,5,5,6,6,7,7,9,9,11,11],"right_children":[2,4,6,-1,8,10,12,14,-1,16,-1,18,-1,-1,-1,-1,-1,-1,-1],"split_conditions":[2E0,5.147873E0,6.26734E0,8.054137E-2,7E0,2E0,2.5E4,6.718906E0,-3.9662004E-2,5.214241E0,-8.153932E-2,2E0,7.935634E-2,-5.247641E-1,5.2905427E-3,1.0423986E-1,6.423808E-2,-4.7423467E-2,-4.9937922E-1],"split_indices":[17,15,15,0,22,23,25,15,0,15,0,22,0,0,0,0,0,0,0],"split_type":[0,0,0,0,0,0,0,0,0,0,0,0,0,0,0,0,0,0,0],"sum_hessian":[1.3523766E2,2.0732214E1,1.1450544E2,2.7067938E0,1.802542E1,1.0732124E2,7.184193E0,1.6376768E1,1.6486508E0,1.05630035E2,1.6912113E0,4.160499E0,3.0236938E0,1.5344022E1,1.0327475E0,8.4801384E1,2.082865E1,2.279601E0,1.880898E0],"tree_param":{"num_deleted":"0","num_feature":"28","num_nodes":"19","size_leaf_vector":"1"}},{"base_weights":[4.1117948E-2,-2.7807348E0,7.43106E-1,7.8549236E-2,-3.1856313E0,9.196823E-1,-1.3184572E0,-3.3814042E0,-3.652379E-2,9.577049E-1,-7.286938E-2,-2.415728E0,7.76108E-2,-3.5476732E-1,5.034037E-3,1.0358586E-1,6.1562557E-2,-4.281717E-2,-3.573281E-1],"categories":[],"categories_nodes":[],"categories_segments":[],"categories_sizes":[],"default_left":[0,0,0,0,0,0,0,0,0,0,0,0,0,0,0,0,0,0,0],"id":2,"left_children":[1,3,5,-1,7,9,11,13,-1,15,-1,17,-1,-1,-1,-1,-1,-1,-1],"loss_changes":[2.662238E2,4.1165573E1,4.0372627E1,0E0,1.2151321E1,6.945221E0,2.2325233E1,1.3044922E1,0E0,1.9786301E0,0E0,1.246349E1,0E0,0E0,0E0,0E0,0E0,0E0,0E0],"parents":[2147483647,0,0,1,1,2,2,4,4,5,5,6,6,7,7,9,9,11,11],"right_children":[2,4,6,-1,8,10,12,14,-1,16,-1,18,-1,-1,-1,-1,-1,-1,-1],"split_conditions":[2E0,5.147873E0,6.26734E0,7.8549236E-2,7E0,2E0,2.5E4,6.718906E0,-3.652379E-2,5.214241E0,-7.286938E-2,2E0,7.76108E-2,-3.5476732E-1,5.034037E-3,1.0358586E-1,6.1562557E-2,-4.281717E-2,-3.573281E-1],"split_indices":[17,15,15,0,22,23,25,15,0,15,0,22,0,0,0,0,0,0,0],"split_type":[0,0,0,0,0,0,0,0,0,0,0,0,0,0,0,0,0,0,0],"sum_hessian":[1.3235175E2,2.577602E1,1.0657572E2,2.5322862E0,2.3243734E1,9.8677704E1,7.898019E0,2.1549032E1,1.6947031E0,9.686241E1,1.8152947E0,5.0822635E0,2.8157551E0,2.0521002E1,1.0280304E0,7.719729E1,1.9665123E1,2.374707E0,2.7075567E0],"tree_param":{"num_deleted":"0","num_feature":"28","num_nodes":"19","size_leaf_vector":"1"}},{"base_weights":[4.2610433E-2,-2.2488124E0,7.206409E-1,7.6597534E-2,-2.5385668E0,9.042736E-1,-1.1357244E0,-2.6410928E0,4.789955E-3,9.450343E-1,-6.530204E-2,-3.7586784E-1,-3.5536712E-1,-2.7904874E-1,-3.3660986E-2,1.0297693E-1,5.888691E-2,6.7343116E-2,-2.4736622E-1],"categories":[],"categories_nodes":[],"categories_segments":[],"categories_sizes":[],"default_left":[0,0,0,0,0,0,0,0,0,0,0,0,0,0,0,0,0,0,0],"id":3,"left_children":[1,3,5,-1,7,9,11,13,-1,15,-1,-1,17,-1,-1,-1,-1,-1,-1],"loss_changes":[2.0194357E2,2.7874374E1,3.5202255E1,0E0,7.3692474E0,6.4433365E0,1.8043114E1,8.111359E0,0E0,2.105339E0,0E0,0E0,1.9974596E1,0E0,0E0,0E0,0E0,0E0,0E0],"parents":[2147483647,0,0,1,1,2,2,4,4,5,5,6,6,7,7,9,9,12,12],"right_children":[2,4,6,-1,8,10,12,14,-1,16,-1,-1,18,-1,-1,-1,-1,-1,-1],"split_conditions":[2E0,5.147873E0,6.26734E0,7.6597534E-2,6.718906E0,2E0,3.4E1,7E0,4.789955E-3,5.214241E0,-6.530204E-2,-3.7586784E-1,4.5E1,-2.7904874E-1,-3.3660986E-2,1.0297693E-1,5.888691E-2,6.7343116E-2,-2.4736622E-1],"split_indices":[17,15,15,0,15,23,7,22,0,15,0,0,8,0,0,0,0,0,0],"split_type":[0,0,0,0,0,0,0,0,0,0,0,0,0,0,0,0,0,0,0],"sum_hessian":[1.2793664E2,2.8683449E1,9.925319E1,2.370959E0,2.6312489E1,9.0785515E1,8.467674E0,2.528893E1,1.0235586E0,8.885303E1,1.932488E0,1.0664586E0,7.401215E0,2.355126E1,1.7376713E0,7.02489E1,1.8604126E1,5.440837E0,1.9603783E0],"tree_param":{"num_deleted":"0","num_feature":"28","num_nodes":"19","size_leaf_vector":"1"}},{"base_weights":[4.02599E-2,-1.9202257E0,6.9714034E-1,7.4684255E-2,-2.1499293E0,8.885602E-1,-1.0470474E0,-2.231396E0,4.5577283E-3,9.321769E-1,-5.86723E-1,-1.7627895E0,7.435411E-2,-2.3496512E-1,-3.1045655E-2,1.0240562E-1,5.621801E-2,-1.4089333E-1,5.4305542E-2,-3.515943E-1,-6.991735E-2],"categories":[],"categories_nodes":[],"categories_segments":[],"categories_sizes":[],"default_left":[0,0,0,0,0,0,0,0,0,0,0,0,0,0,0,0,0,0,0,0,0],"id":4,"left_children":[1,3,5,-1,7,9,11,13,-1,15,17,19,-1,-1,-1,-1,-1,-1,-1,-1,-1],"loss_changes":[1.6043306E2,2.0763374E1,3.2070038E1,0E0,5.297455E0,5.9897537E0,1.37200775E1,5.6378326E0,0E0,2.230339E0,3.5915182E0,1.0994041E1,0E0,0E0,0E0,0E0,0E0,0E0,0E0,0E0,0E0],"parents":[2147483647,0,0,1,1,2,2,4,4,5,5,6,6,7,7,9,9,10,10,11,11],"right_children":[2,4,6,-1,8,10,12,14,-1,16,18,20,-1,-1,-1,-1,-1,-1,-1,-1,-1],"split_conditions":[2E0,5.147873E0,6.26734E0,7.4684255E-2,6.718906E0,2E0,2.5E4,7E0,4.5577283E-3,5.214241E0,2.2E1,6.1E1,7.435411E-2,-2.3496512E-1,-3.1045655E-2,1.0240562E-1,5.621801E-2,-1.4089333E-1,5.4305542E-2,-3.515943E-1,-6.991735E-2],"split_indices":[17,15,15,0,15,23,25,22,0,15,0,7,0,0,0,0,0,0,0,0,0],"split_type":[0,0,0,0,0,0,0,0,0,0,0,0,0,0,0,0,0,0,0,0,0],"sum_hessian":[1.2253924E2,3.0270998E1,9.226824E1,2.2218578E0,2.8049139E1,8.358552E1,8.682722E0,2.7029821E1,1.0193192E0,8.154285E1,2.042676E0,6.214257E0,2.4684656E0,2.5252096E1,1.7777241E0,6.390573E1,1.7637114E1,1.0392562E0,1.0034198E0,1.4758949E0,4.738362E0],"tree_param":{"num_deleted":"0","num_feature":"28","num_nodes":"21","size_leaf_vector":"1"}},{"base_weights":[3.8416162E-2,-1.6939018E0,6.7359155E-1,7.28083E-2,-1.887295E0,8.724073E-1,-9.331422E-1,-1.956743E0,4.3367646E-3,9.190454E-1,-5.382169E-1,-1.5194556E0,7.2647475E-2,-2.058277E-1,-2.8653124E-2,1.0186527E-1,5.356359E-2,5.603785E-2,-1.3780697E-1,-2.8809628E-1,-6.1792593E-2],"categories":[],"categories_nodes":[],"categories_segments":[],"categories_sizes":[],"default_left":[0,0,0,0,0,0,0,0,0,0,0,0,0,0,0,0,0,0,0,0,0],"id":5,"left_children":[1,3,5,-1,7,9,11,13,-1,15,17,19,-1,-1,-1,-1,-1,-1,-1,-1,-1],"loss_changes":[1.3100615E2,1.6339005E1,2.862967E1,0E0,4.089203E0,5.626419E0,1.0903814E1,4.302696E0,0E0,2.352127E0,3.6574733E0,7.7515965E0,0E0,0E0,0E0,0E0,0E0,0E0,0E0,0E0,0E0],"parents":[2147483647,0,0,1,1,2,2,4,4,5,5,6,6,7,7,9,9,10,10,11,11],"right_children":[2,4,6,-1,8,10,12,14,-1,16,18,20,-1,-1,-1,-1,-1,-1,-1,-1,-1],"split_conditions":[2E0,5.147873E0,6.26734E0,7.28083E-2,6.718906E0,2E0,2.5E4,7E0,4.3367646E-3,5.214241E0,5E3,6.1E1,7.2647475E-2,-2.058277E-1,-2.8653124E-2,1.0186527E-1,5.356359E-2,5.603785E-2,-1.3780697E-1,-2.8809628E-1,-6.1792593E-2],"split_indices":[17,15,15,0,15,23,25,22,0,15,25,7,0,0,0,0,0,0,0,0,0],"split_type":[0,0,0,0,0,0,0,0,0,0,0,0,0,0,0,0,0,0,0,0,0],"sum_hessian":[1.1702427E2,3.0949278E1,8.6075E1,2.0840921E0,2.8865185E1,7.700366E1,9.071333E0,2.7849886E1,1.015299E0,7.487657E1,2.127087E0,6.765615E0,2.3057184E0,2.6034855E1,1.815031E0,5.8120434E1,1.6756142E1,1.0657568E0,1.0613303E0,1.8205488E0,4.945066E0],"tree_param":{"num_deleted":"0","num_feature":"28","num_nodes":"21","size_leaf_vector":"1"}},{"base_weights":[3.651383E-2,-1.5269005E0,6.504365E-1,7.0968926E-2,-1.6962879E0,8.558014E-1,-8.362594E-1,-1.7582808E0,4.1264957E-3,1.0145023E-1,3.3830667E-1,-1.3275865E0,7.095591E-2,-1.8502448E-1,-2.646159E-2,-2.8376153E-1,7.251787E-2,-2.4410458E-1,-5.484552E-2],"categories":[],"categories_nodes":[],"categories_segments":[],"categories_sizes":[],"default_left":[0,0,0,0,0,0,0,0,0,0,0,0,0,0,0,0,0,0,0],"id":6,"left_children":[1,3,5,-1,7,9,11,13,-1,-1,15,17,-1,-1,-1,-1,-1,-1,-1],"loss_changes":[1.0885279E2,1.332103E1,2.5565659E1,0E0,3.3069763E0,5.5704956E0,8.828831E0,3.4961166E0,0E0,0E0,2.466556E1,5.7992525E0,0E0,0E0,0E0,0E0,0E0,0E0,0E0],"parents":[2147483647,0,0,1,1,2,2,4,4,5,5,6,6,7,7,10,10,11,11],"right_children":[2,4,6,-1,8,10,12,14,-1,-1,16,18,-1,-1,-1,-1,-1,-1,-1],"split_conditions":[2E0,5.147873E0,6.26734E0,7.0968926E-2,6.718906E0,5.214241E0,2.5E4,7E0,4.1264957E-3,1.0145023E-1,5.563608E0,6.1E1,7.095591E-2,-1.8502448E-1,-2.646159E-2,-2.8376153E-1,7.251787E-2,-2.4410458E-1,-5.484552E-2],"split_indices":[17,15,15,0,15,15,25,22,0,0,15,7,0,0,0,0,0,0,0],"split_type":[0,0,0,0,0,0,0,0,0,0,0,0,0,0,0,0,0,0,0],"sum_hessian":[1.1137539E2,3.098413E1,8.039126E1,1.9568007E0,2.902733E1,7.100705E1,9.384206E0,2.8015844E1,1.0114857E0,5.3606926E1,1.7400126E1,7.228011E0,2.1561944E0,2.6166086E1,1.8497593E0,1.2015508E0,1.6198574E1,2.0974717E0,5.1305394E0],"tree_param":{"num_deleted":"0","num_feature":"28","num_nodes":"19","size_leaf_vector":"1"}},{"base_weights":[3.3492662E-2,1.01157285E-1,-8.669294E-1,-1.433197E0,9.701552E-2,-1.5578356E0,6.999121E-2,-1.6411111E-1,5.999408E-2],"categories":[],"categories_nodes":[],"categories_segments":[],"categories_sizes":[],"default_left":[0,0,0,0,0,0,0,0,0],"id":7,"left_children":[1,-1,3,5,-1,7,-1,-1,-1],"loss_changes":[9.4794556E1,0E0,5.971233E1,1.2591194E1,0E0,8.384148E0,0E0,0E0,0E0],"parents":[2147483647,0,0,2,2,3,3,5,5],"right_children":[2,-1,4,6,-1,8,-1,-1,-1],"split_conditions":[5.214241E0,1.01157285E-1,4E0,1.9E1,9.701552E-2,7.9072547E0,6.999121E-2,-1.6411111E-1,5.999408E-2],"split_indices":[15,0,17,26,0,15,0,0,0],"split_type":[0,0,0,0,0,0,0,0,0],"sum_hessian":[1.0564155E2,5.0577972E1,5.506358E1,4.2257782E1,1.2805795E1,4.017975E1,2.0780337E0,3.891725E1,1.2624965E0],"tree_param":{"num_deleted":"0","num_feature":"28","num_nodes":"9","size_leaf_vector":"1"}},{"base_weights":[3.685208E-2,1.0066688E-1,-7.8383416E-1,-1.2716376E0,9.597828E-2,-1.3787799E0,6.832814E-2,-1.4509228E-1,5.8377326E-2],"categories":[],"categories_nodes":[],"categories_segments":[],"categories_sizes":[],"default_left":[0,0,0,0,0,0,0,0,0],"id":8,"left_children":[1,-1,3,5,-1,7,-1,-1,-1],"loss_changes":[8.160989E1,0E0,4.8479427E1,1.012603E1,0E0,6.779381E0,0E0,0E0,0E0],"parents":[2147483647,0,0,2,2,3,3,5,5],"right_children":[2,-1,4,6,-1,8,-1,-1,-1],"split_conditions":[5.214241E0,1.0066688E-1,4E0,1.9E1,9.597828E-2,7.9072547E0,6.832814E-2,-1.4509228E-1,5.8377326E-2],"split_indices":[15,0,17,26,0,15,0,0,0],"split_type":[0,0,0,0,0,0,0,0,0],"sum_hessian":[1.00544525E2,4.5981228E1,5.4563297E1,4.2846912E1,1.1716385E1,4.0900036E1,1.9468766E0,3.9701324E1,1.1987122E0],"tree_param":{"num_deleted":"0","num_feature":"28","num_nodes":"9","size_leaf_vector":"1"}},{"base_weights":[3.984623E-2,1.0018797E-1,-7.1075666E-1,-1.1351002E0,9.49369E-2,-1.8560876E0,-8.054717E-1,-1.239836E-1,-3.72439E-1,-1.0845592E-1,6.343829E-2],"categories":[],"categories_nodes":[],"categories_segments":[],"categories_sizes":[],"default_left":[0,0,0,0,0,0,0,0,0,0,0],"id":9,"left_children":[1,-1,3,5,-1,7,9,-1,-1,-1,-1],"loss_changes":[7.054427E1,0E0,3.9758003E1,9.005947E0,0E0,1.0460789E1,1.3582798E1,0E0,0E0,0E0,0E0],"parents":[2147483647,0,0,2,2,3,3,5,5,6,6],"right_children":[2,-1,4,6,-1,8,10,-1,-1,-1,-1],"split_conditions":[5.214241E0,1.0018797E-1,4E0,5.6014442E0,9.49369E-2,5.261378E0,3E0,-1.239836E-1,-3.72439E-1,-1.0845592E-1,6.343829E-2],"split_indices":[15,0,17,15,0,15,17,0,0,0,0],"split_type":[0,0,0,0,0,0,0,0,0,0,0],"sum_hessian":[9.57064E1,4.1798847E1,5.3907555E1,4.3185257E1,1.0722297E1,1.2096363E1,3.1088894E1,1.034705E1,1.7493137E0,2.6247993E1,4.8409E0],"tree_param":{"num_deleted":"0","num_feature":"28","num_nodes":"11","size_leaf_vector":"1"}},{"base_weights":[3.7146423E-2,9.971594E-2,-6.5642124E-1,-1.0318128E0,9.38852E-2,-1.7099143E0,-7.241477E-1,-1.1604158E-1,-3.1464127E-1,-9.6805416E-2,6.1036E-2],"categories":[],"categories_nodes":[],"categories_segments":[],"categories_sizes":[],"default_left":[0,0,0,0,0,0,0,0,0,0,0],"id":10,"left_children":[1,-1,3,5,-1,7,9,-1,-1,-1,-1],"loss_changes":[6.1928757E1,0E0,3.332491E1,7.9861717E0,0E0,6.6618195E0,1.1055351E1,0E0,0E0,0E0,0E0],"parents":[2147483647,0,0,2,2,3,3,5,5,6,6],"right_children":[2,-1,4,6,-1,8,10,-1,-1,-1,-1],"split_conditions":[5.214241E0,9.971594E-2,4E0,5.6014442E0,9.38852E-2,5.261378E0,3E0,-1.1604158E-1,-3.1464127E-1,-9.6805416E-2,6.1036E-2],"split_indices":[15,0,17,15,0,15,17,0,0,0,0],"split_type":[0,0,0,0,0,0,0,0,0,0,0],"sum_hessian":[9.1026245E1,3.799589E1,5.3030354E1,4.321454E1,9.815818E0,1.2065083E1,3.1149454E1,1.003445E1,2.0306334E0,2.656821E1,4.5812445E0],"tree_param":{"num_deleted":"0","num_feature":"28","num_nodes":"11","size_leaf_vector":"1"}},{"base_weights":[3.4858298E-2,9.924631E-2,-6.0647243E-1,-9.401302E-1,9.281765E-2,-1.0317432E0,6.849075E-2,-1.1021658E-1,6.234606E-2],"categories":[],"categories_nodes":[],"categories_segments":[],"categories_sizes":[],"default_left":[0,0,0,0,0,0,0,0,0],"id":11,"left_children":[1,-1,3,5,-1,7,-1,-1,-1],"loss_changes":[5.443656E1,0E0,2.8072292E1,7.2764435E0,0E0,5.603077E0,0E0,0E0,0E0],"parents":[2147483647,0,0,2,2,3,3,5,5],"right_children":[2,-1,4,6,-1,8,-1,-1,-1],"split_conditions":[5.214241E0,9.924631E-2,4E0,1.9E1,9.281765E-2,7.9072547E0,6.849075E-2,-1.1021658E-1,6.234606E-2],"split_indices":[15,0,17,26,0,15,0,0,0],"split_type":[0,0,0,0,0,0,0,0,0],"sum_hessian":[8.665842E1,3.4538963E1,5.2119453E1,4.312974E1,8.989713E0,4.1173634E1,1.956106E0,3.9813828E1,1.3598068E0],"tree_param":{"num_deleted":"0","num_feature":"28","num_nodes":"9","size_leaf_vector":"1"}},{"base_weights":[3.7868455E-2,9.8774925E-2,-5.517139E-1,-8.4740835E-1,9.172945E-2,-1.5111068E0,-5.59999E-1,-1.09968506E-1,-3.0443728E-1,9.2646785E-2,-7.470386E-2],"categories":[],"categories_nodes":[],"categories_segments":[],"categories_sizes":[],"default_left":[0,0,0,0,0,0,0,0,0,0,0],"id":12,"left_children":[1,-1,3,5,-1,7,9,-1,-1,-1,-1],"loss_changes":[4.739735E1,0E0,2.3478607E1,7.551588E0,0E0,4.6728134E0,9.675127E0,0E0,0E0,0E0,0E0],"parents":[2147483647,0,0,2,2,3,3,5,5,6,6],"right_children":[2,-1,4,6,-1,8,10,-1,-1,-1,-1],"split_conditions":[5.214241E0,9.8774925E-2,4E0,5.6014442E0,9.172945E-2,5E0,5.722644E0,-1.09968506E-1,-3.0443728E-1,9.2646785E-2,-7.470386E-2],"split_indices":[15,0,17,15,0,16,15,0,0,0,0],"split_type":[0,0,0,0,0,0,0,0,0,0,0],"sum_hessian":[8.266007E1,3.1398447E1,5.1261627E1,4.3024445E1,8.237184E0,1.1714687E1,3.1309755E1,1.0590226E1,1.124461E0,3.057493E0,2.8252262E1],"tree_param":{"num_deleted":"0","num_feature":"28","num_nodes":"11","size_leaf_vector":"1"}},{"base_weights":[3.55927E-2,9.829776E-2,-5.084602E-1,-7.7207136E-1,9.061646E-2,-1.4085387E0,-5.014466E-1,-1.0311548E-1,-2.634261E-1,-7.223362E-2,6.346054E-2],"categories":[],"categories_nodes":[],"categories_segments":[],"categories_sizes":[],"default_left":[0,0,0,0,0,0,0,0,0,0,0],"id":13,"left_children":[1,-1,3,5,-1,7,9,-1,-1,-1,-1],"loss_changes":[4.176592E1,0E0,1.9910381E1,6.8661747E0,0E0,3.095129E0,8.5889845E0,0E0,0E0,0E0,0E0],"parents":[2147483647,0,0,2,2,3,3,5,5,6,6],"right_children":[2,-1,4,6,-1,8,10,-1,-1,-1,-1],"split_conditions":[5.214241E0,9.829776E-2,4E0,5.6014442E0,9.061646E-2,5E0,3E0,-1.0311548E-1,-2.634261E-1,-7.223362E-2,6.346054E-2],"split_indices":[15,0,17,15,0,16,17,0,0,0,0],"split_type":[0,0,0,0,0,0,0,0,0,0,0],"sum_hessian":[7.906192E1,2.8546242E1,5.0515675E1,4.2963734E1,7.5519423E0,1.1563473E1,3.140026E1,1.0249154E1,1.3143188E0,2.6593662E1,4.8065987E0],"tree_param":{"num_deleted":"0","num_feature":"28","num_nodes":"11","size_leaf_vector":"1"}},{"base_weights":[3.335616E-2,9.781085E-2,-4.7086808E-1,-7.081434E-1,8.947535E-2,-1.3141276E0,-4.532889E-1,-1.5210365E-1,-7.6207607E-3,9.147648E-2,-6.191609E-2],"categories":[],"categories_nodes":[],"categories_segments":[],"categories_sizes":[],"default_left":[0,0,0,0,0,0,0,0,0,0,0],"id":14,"left_children":[1,-1,3,5,-1,7,9,-1,-1,-1,-1],"loss_changes":[3.6917156E1,0E0,1.7021004E1,6.1448727E0,0E0,3.0588741E0,7.8848004E0,0E0,0E0,0E0,0E0],"parents":[2147483647,0,0,2,2,3,3,5,5,6,6],"right_children":[2,-1,4,6,-1,8,10,-1,-1,-1,-1],"split_conditions":[5.214241E0,9.781085E-2,4E0,5.6014442E0,8.947535E-2,6E0,5.722644E0,-1.5210365E-1,-7.6207607E-3,9.147648E-2,-6.191609E-2],"split_indices":[15,0,17,15,0,22,15,0,0,0,0],"split_type":[0,0,0,0,0,0,0,0,0,0,0],"sum_hessian":[7.553049E1,2.5956541E1,4.9573944E1,4.264574E1,6.928204E0,1.13949175E1,3.1250822E1,9.567141E0,1.827777E0,2.8911064E0,2.8359716E1],"tree_param":{"num_deleted":"0","num_feature":"28","num_nodes":"11","size_leaf_vector":"1"}},{"base_weights":[3.380097E-2,9.7310446E-2,-4.335625E-1,-6.4802694E-1,8.830336E-2,-1.0888624E0,-3.0538887E-1,-1.21332444E-1,3.5955475E-3,1.998066E-2,-1.2553321E-1],"categories":[],"categories_nodes":[],"categories_segments":[],"categories_sizes":[],"default_left":[0,0,0,0,0,0,0,0,0,0,0],"id":15,"left_children":[1,-1,3,5,-1,7,9,-1,-1,-1,-1],"loss_changes":[3.2526363E1,0E0,1.4556389E1,6.187401E0,0E0,2.631836E0,1.2573531E1,0E0,0E0,0E0,0E0],"parents":[2147483647,0,0,2,2,3,3,5,5,6,6],"right_children":[2,-1,4,6,-1,8,10,-1,-1,-1,-1],"split_conditions":[5.214241E0,9.7310446E-2,4E0,2E0,8.830336E-2,7E0,2.9E1,-1.21332444E-1,3.5955475E-3,1.998066E-2,-1.2553321E-1],"split_indices":[15,0,17,16,0,22,8,0,0,0,0],"split_type":[0,0,0,0,0,0,0,0,0,0,0],"sum_hessian":[7.213154E1,2.3606089E1,4.852545E1,4.2164883E1,6.360569E0,1.7487598E1,2.4677284E1,1.5674517E1,1.8130822E0,1.6625326E1,8.051958E0],"tree_param":{"num_deleted":"0","num_feature":"28","num_nodes":"11","size_leaf_vector":"1"}},{"base_weights":[3.2605678E-2,9.6792854E-2,-4.0709165E-1,-6.055017E-1,8.709852E-2,-1.0494095E0,-2.794575E-1,-1.17714405E-1,3.365475E-3,1.8311583E-2,-1.12821735E-1],"categories":[],"categories_nodes":[],"categories_segments":[],"categories_sizes":[],"default_left":[0,0,0,0,0,0,0,0,0,0,0],"id":16,"left_children":[1,-1,3,5,-1,7,9,-1,-1,-1,-1],"loss_changes":[2.8915777E1,0E0,1.2668716E1,5.7906094E0,0E0,2.4519634E0,1.0256636E1,0E0,0E0,0E0,0E0],"parents":[2147483647,0,0,2,2,3,3,5,5,6,6],"right_children":[2,-1,4,6,-1,8,10,-1,-1,-1,-1],"split_conditions":[5.214241E0,9.6792854E-2,4E0,2E0,8.709852E-2,7E0,2.9E1,-1.17714405E-1,3.365475E-3,1.8311583E-2,-1.12821735E-1],"split_indices":[15,0,17,16,0,22,8,0,0,0,0],"split_type":[0,0,0,0,0,0,0,0,0,0,0],"sum_hessian":[6.8352264E1,2.1473194E1,4.687907E1,4.1034992E1,5.844078E0,1.6437202E1,2.4597788E1,1.462544E1,1.8117623E0,1.6428516E1,8.169271E0],"tree_param":{"num_deleted":"0","num_feature":"28","num_nodes":"11","size_leaf_vector":"1"}},{"base_weights":[3.148643E-2,9.625455E-2,-3.8209283E-1,-5.659362E-1,8.585944E-2,-1.1817739E0,-3.2889342E-1,-1.3868268E-1,-8.834252E-3,1.781415E-2,-7.8341834E-2],"categories":[],"categories_nodes":[],"categories_segments":[],"categories_sizes":[],"default_left":[0,0,0,0,0,0,0,0,0,0,0],"id":17,"left_children":[1,-1,3,5,-1,7,9,-1,-1,-1,-1],"loss_changes":[2.5724722E1,0E0,1.10494175E1,5.587492E0,0E0,2.3421125E0,7.2713423E0,0E0,0E0,0E0,0E0],"parents":[2147483647,0,0,2,2,3,3,5,5,6,6],"right_children":[2,-1,4,6,-1,8,10,-1,-1,-1,-1],"split_conditions":[5.214241E0,9.625455E-2,4E0,5.6014442E0,8.585944E-2,6E0,6.487036E0,-1.3868268E-1,-8.834252E-3,1.781415E-2,-7.8341834E-2],"split_indices":[15,0,17,15,0,22,15,0,0,0,0],"split_type":[0,0,0,0,0,0,0,0,0,0,0],"sum_hessian":[6.485077E1,1.9538313E1,4.5312454E1,3.99383E1,5.3741517E0,9.992438E0,2.9945864E1,8.18851E0,1.8039285E0,1.4442704E1,1.5503159E1],"tree_param":{"num_deleted":"0","num_feature":"28","num_nodes":"11","size_leaf_vector":"1"}},{"base_weights":[3.030489E-2,9.569206E-2,-3.558477E-1,-5.247394E-1,8.458558E-2,-9.862462E-1,-2.2432001E-1,-1.1211043E-1,2.7223383E-3,1.9283658E-2,-9.865906E-2],"categories":[],"categories_nodes":[],"categories_segments":[],"categories_sizes":[],"default_left":[0,0,0,0,0,0,0,0,0,0,0],"id":18,"left_children":[1,-1,3,5,-1,7,9,-1,-1,-1,-1],"loss_changes":[2.2859442E1,0E0,9.60764E0,5.352951E0,0E0,2.1568785E0,8.345562E0,0E0,0E0,0E0,0E0],"parents":[2147483647,0,0,2,2,3,3,5,5,6,6],"right_children":[2,-1,4,6,-1,8,10,-1,-1,-1,-1],"split_conditions":[5.214241E0,9.569206E-2,4E0,2E0,8.458558E-2,7E0,2.9E1,-1.1211043E-1,2.7223383E-3,1.9283658E-2,-9.865906E-2],"split_indices":[15,0,17,16,0,22,8,0,0,0,0],"split_type":[0,0,0,0,0,0,0,0,0,0,0],"sum_hessian":[6.1934536E1,1.7783346E1,4.415119E1,3.9204575E1,4.946615E0,1.4557825E1,2.464675E1,1.2754442E1,1.8033824E0,1.6412144E1,8.234608E0],"tree_param":{"num_deleted":"0","num_feature":"28","num_nodes":"11","size_leaf_vector":"1"}},{"base_weights":[2.9298251E-2,9.510206E-2,-3.3382055E-1,-9.5475566E-1,-2.0728076E-2,-1.0944396E-1,2.548181E-3,-2.9537576E-1,8.903461E-2,1.5053473E-2,-1.1770103E-1],"categories":[],"categories_nodes":[],"categories_segments":[],"categories_sizes":[],"default_left":[0,0,0,0,0,0,0,0,0,0,0],"id":19,"left_children":[1,-1,3,5,7,-1,-1,9,-1,-1,-1],"loss_changes":[2.0369556E1,0E0,8.479759E0,2.0314827E0,7.7914233E0,0E0,0E0,9.560673E0,0E0,0E0,0E0],"parents":[2147483647,0,0,2,2,3,3,4,4,7,7],"right_children":[2,-1,4,6,8,-1,-1,10,-1,-1,-1],"split_conditions":[5.214241E0,9.510206E-2,2E0,7E0,2.8E4,-1.0944396E-1,2.548181E-3,1.7E4,8.903461E-2,1.5053473E-2,-1.1770103E-1],"split_indices":[15,0,16,22,25,0,0,25,0,0,0],"split_type":[0,0,0,0,0,0,0,0,0,0,0],"sum_hessian":[5.891158E1,1.6191885E1,4.2719692E1,1.3632949E1,2.9086744E1,1.1830585E1,1.8023645E0,2.2868668E1,6.2180758E0,1.5738003E1,7.130665E0],"tree_param":{"num_deleted":"0","num_feature":"28","num_nodes":"11","size_leaf_vector":"1"}},{"base_weights":[2.806082E-2,9.44812E-2,-3.14989E-1,-4.6620363E-1,8.235329E-2,-1.0680059E0,-2.4826582E-1,-1.2727848E-1,-9.757443E-3,-4.3517414E-2,9.135763E-2],"categories":[],"categories_nodes":[],"categories_segments":[],"categories_sizes":[],"default_left":[0,0,0,0,0,0,0,0,0,0,0],"id":20,"left_children":[1,-1,3,5,-1,7,9,-1,-1,-1,-1],"loss_changes":[1.8197351E1,0E0,7.6435976E0,4.700713E0,0E0,1.8160114E0,6.716665E0,0E0,0E0,0E0,0E0],"parents":[2147483647,0,0,2,2,3,3,5,5,6,6],"right_children":[2,-1,4,6,-1,8,10,-1,-1,-1,-1],"split_conditions":[5.214241E0,9.44812E-2,4E0,5.6014442E0,8.235329E-2,6E0,6.19E2,-1.2727848E-1,-9.757443E-3,-4.3517414E-2,9.135763E-2],"split_indices":[15,0,17,15,0,22,7,0,0,0,0],"split_type":[0,0,0,0,0,0,0,0,0,0,0],"sum_hessian":[5.59165E1,1.4748665E1,4.1167835E1,3.686241E1,4.305423E0,8.763321E0,2.809909E1,6.9790487E0,1.7842726E0,2.4743921E1,3.3551695E0],"tree_param":{"num_deleted":"0","num_feature":"28","num_nodes":"11","size_leaf_vector":"1"}},{"base_weights":[2.9004714E-2,9.3826614E-2,-2.8922966E-1,-9.1405714E-1,3.627217E-4,-1.1066729E-1,-1.4167775E-1,-2.4000406E-1,8.730541E-2,7.1209855E-2,-7.164024E-2,1.6435977E-2,-1.0623819E-1],"categories":[],"categories_nodes":[],"categories_segments":[],"categories_sizes":[],"default_left":[0,0,0,0,0,0,0,0,0,0,0,0,0],"id":21,"left_children":[1,-1,3,5,7,-1,9,11,-1,-1,-1,-1,-1],"loss_changes":[1.6125546E1,0E0,7.48249E0,1.7915134E0,6.346143E0,0E0,2.3555167E0,8.0629015E0,0E0,0E0,0E0,0E0,0E0],"parents":[2147483647,0,0,2,2,3,3,4,4,6,6,7,7],"right_children":[2,-1,4,6,8,-1,10,12,-1,-1,-1,-1,-1],"split_conditions":[5.214241E0,9.3826614E-2,2E0,5.68E2,2.8E4,-1.1066729E-1,7.27E2,1.7E4,8.730541E-2,7.1209855E-2,-7.164024E-2,1.6435977E-2,-1.0623819E-1],"split_indices":[15,0,16,7,25,0,7,25,0,0,0,0,0],"split_type":[0,0,0,0,0,0,0,0,0,0,0,0,0],"sum_hessian":[5.379081E1,1.3440414E1,4.0350395E1,1.2095868E1,2.8254528E1,9.335078E0,2.7607896E0,2.2721336E1,5.5331903E0,1.0145739E0,1.7462157E0,1.5768228E1,6.9531097E0],"tree_param":{"num_deleted":"0","num_feature":"28","num_nodes":"13","size_leaf_vector":"1"}},{"base_weights":[2.7690746E-2,9.313514E-2,-2.7321047E-1,-8.8846713E-1,8.447141E-4,-1.0808857E-1,-1.3268363E-1,-7.440712E-1,2.64493E-1,-5.319881E-2,4.0076327E-2,-1.1178737E-1,2.3892025E-2,9.151563E-2,-5.885768E-2],"categories":[],"categories_nodes":[],"categories_segments":[],"categories_sizes":[],"default_left":[0,0,0,0,0,0,0,0,0,0,0,0,0,0,0],"id":22,"left_children":[1,-1,3,5,7,-1,9,11,13,-1,-1,-1,-1,-1,-1],"loss_changes":[1.4434925E1,0E0,6.7278996E0,1.6447115E0,5.813908E0,0E0,9.875061E-1,3.1106663E0,1.2673466E1,0E0,0E0,0E0,0E0,0E0,0E0],"parents":[2147483647,0,0,2,2,3,3,4,4,6,6,7,7,8,8],"right_children":[2,-1,4,6,8,-1,10,12,14,-1,-1,-1,-1,-1,-1],"split_conditions":[5.214241E0,9.313514E-2,2E0,5.68E2,6E0,-1.0808857E-1,1.8E1,3E0,3E0,-5.319881E-2,4.0076327E-2,-1.1178737E-1,2.3892025E-2,9.151563E-2,-5.885768E-2],"split_indices":[15,0,16,7,8,0,0,17,22,0,0,0,0,0,0],"split_type":[0,0,0,0,0,0,0,0,0,0,0,0,0,0,0],"sum_hessian":[5.1150845E1,1.2254165E1,3.889668E1,1.1295727E1,2.760095E1,8.6606245E0,2.635102E0,6.738808E0,2.0862143E1,1.508597E0,1.1265051E0,4.7828255E0,1.9559827E0,1.1793834E1,9.068309E0],"tree_param":{"num_deleted":"0","num_feature":"28","num_nodes":"15","size_leaf_vector":"1"}},{"base_weights":[2.5779212E-2,9.2404164E-2,-2.589239E-1,-8.607496E-1,5.79673E-4,-1.0138597E-1,1.6748644E-3,-2.1234709E-1,8.501104E-2,1.5760377E-2,-9.7588696E-2],"categories":[],"categories_nodes":[],"categories_segments":[],"categories_sizes":[],"default_left":[0,0,0,0,0,0,0,0,0,0,0],"id":23,"left_children":[1,-1,3,5,7,-1,-1,9,-1,-1,-1],"loss_changes":[1.2948032E1,0E0,6.0157223E0,1.576128E0,5.2292624E0,0E0,0E0,6.6838355E0,0E0,0E0,0E0],"parents":[2147483647,0,0,2,2,3,3,4,4,7,7],"right_children":[2,-1,4,6,8,-1,-1,10,-1,-1,-1],"split_conditions":[5.214241E0,9.2404164E-2,2E0,7E0,2.8E4,-1.0138597E-1,1.6748644E-3,1.7E4,8.501104E-2,1.5760377E-2,-9.7588696E-2],"split_indices":[15,0,16,22,25,0,0,25,0,0,0],"split_type":[0,0,0,0,0,0,0,0,0,0,0],"sum_hessian":[4.8694496E1,1.1178801E1,3.7515694E1,1.0604784E1,2.6910912E1,8.896996E0,1.7077887E0,2.211743E1,4.793481E0,1.5433276E1,6.684154E0],"tree_param":{"num_deleted":"0","num_feature":"28","num_nodes":"11","size_leaf_vector":"1"}},{"base_weights":[2.4725076E-2,-2.449719E-1,9.17868E-2,-9.018429E-1,-3.2895844E-2,-1.1438831E0,3.808992E-2,5.9330904E-1,-4.8039567E-1,-1.3903739E-1,-2.9419651E-2,-5.7744604E-2,8.361965E-2,-9.232708E-2,2.6682263E-2],"categories":[],"categories_nodes":[],"categories_segments":[],"categories_sizes":[],"default_left":[0,0,0,0,0,0,0,0,0,0,0,0,0,0,0],"id":24,"left_children":[1,3,-1,5,7,9,-1,11,13,-1,-1,-1,-1,-1,-1],"loss_changes":[1.1654398E1,5.1572638E0,0E0,3.245346E0,8.463274E0,1.2377396E0,0E0,4.0689254E0,6.0618453E0,0E0,0E0,0E0,0E0,0E0,0E0],"parents":[2147483647,0,0,1,1,3,3,4,4,5,5,7,7,8,8],"right_children":[2,4,-1,6,8,10,-1,12,14,-1,-1,-1,-1,-1,-1],"split_conditions":[4E0,3.6E1,9.17868E-2,3E0,3E0,3E0,3.808992E-2,2E0,1E0,-1.3903739E-1,-2.9419651E-2,-5.7744604E-2,8.361965E-2,-9.232708E-2,2.6682263E-2],"split_indices":[17,7,0,17,22,22,0,17,23,0,0,0,0,0,0],"split_type":[0,0,0,0,0,0,0,0,0,0,0,0,0,0,0],"sum_hessian":[4.6449528E1,3.6233913E1,1.0215616E1,8.049487E0,2.8184425E1,6.862799E0,1.1866882E0,1.1610936E1,1.6573488E1,4.826356E0,2.0364432E0,1.7582887E0,9.852647E0,1.0257986E1,6.315503E0],"tree_param":{"num_deleted":"0","num_feature":"28","num_nodes":"15","size_leaf_vector":"1"}},{"base_weights":[2.2609401E-2,9.1112375E-2,-2.4181433E-1,-8.235648E-1,-7.028161E-4,-1.0358393E-1,-5.6565613E-2,-6.5721923E-1,2.5818455E-1,-4.530031E-2,4.0446926E-2,-1.018505E-1,2.0715645E-2,8.7096296E-2,-4.6637516E-2],"categories":[],"categories_nodes":[],"categories_segments":[],"categories_sizes":[],"default_left":[0,0,0,0,0,0,0,0,0,0,0,0,0,0,0],"id":25,"left_children":[1,-1,3,5,7,-1,9,11,13,-1,-1,-1,-1,-1,-1],"loss_changes":[1.0884565E1,0E0,5.016842E0,1.6477804E0,4.638046E0,0E0,7.917799E-1,2.620968E0,9.096449E0,0E0,0E0,0E0,0E0,0E0,0E0],"parents":[2147483647,0,0,2,2,3,3,4,4,6,6,7,7,8,8],"right_children":[2,-1,4,6,8,-1,10,12,14,-1,-1,-1,-1,-1,-1],"split_conditions":[5.214241E0,9.1112375E-2,2E0,5.68E2,6E0,-1.0358393E-1,1.8E1,1.6E1,3E0,-4.530031E-2,4.0446926E-2,-1.018505E-1,2.0715645E-2,8.7096296E-2,-4.6637516E-2],"split_indices":[15,0,16,7,8,0,0,0,22,0,0,0,0,0,0],"split_type":[0,0,0,0,0,0,0,0,0,0,0,0,0,0,0],"sum_hessian":[4.439052E1,9.61995E0,3.477057E1,9.480486E0,2.5290083E1,7.150896E0,2.3295896E0,6.7172008E0,1.8572882E1,1.2619109E0,1.0676786E0,4.611433E0,2.1057675E0,9.953174E0,8.619708E0],"tree_param":{"num_deleted":"0","num_feature":"28","num_nodes":"15","size_leaf_vector":"1"}},{"base_weights":[2.1065257E-2,9.026513E-2,-2.2856972E-1,-7.9783595E-1,-6.881293E-4,-1.0138196E-1,-5.332588E-2,-1.8279138E-1,8.141527E-2,-4.355922E-2,3.850152E-2,1.4824765E-2,-8.86807E-2],"categories":[],"categories_nodes":[],"categories_segments":[],"categories_sizes":[],"default_left":[0,0,0,0,0,0,0,0,0,0,0,0,0],"id":26,"left_children":[1,-1,3,5,7,-1,9,11,-1,-1,-1,-1,-1],"loss_changes":[9.7691965E0,0E0,4.495957E0,1.5391517E0,3.9703047E0,0E0,7.179011E-1,5.227538E0,0E0,0E0,0E0,0E0,0E0],"parents":[2147483647,0,0,2,2,3,3,4,4,6,6,7,7],"right_children":[2,-1,4,6,8,-1,10,12,-1,-1,-1,-1,-1],"split_conditions":[5.214241E0,9.026513E-2,2E0,5.68E2,2.8E4,-1.0138196E-1,1.8E1,2.9E1,8.141527E-2,-4.355922E-2,3.850152E-2,1.4824765E-2,-8.86807E-2],"split_indices":[15,0,16,7,25,0,0,8,0,0,0,0,0],"split_type":[0,0,0,0,0,0,0,0,0,0,0,0,0],"sum_hessian":[4.2452877E1,8.791126E0,3.366175E1,8.907932E0,2.4753817E1,6.624443E0,2.2834895E0,2.0866236E1,3.8875813E0,1.2231137E0,1.0603757E0,1.4729584E1,6.1366525E0],"tree_param":{"num_deleted":"0","num_feature":"28","num_nodes":"13","size_leaf_vector":"1"}},{"base_weights":[1.9985864E-2,8.937089E-2,-2.155541E-1,-7.728036E-1,4.665306E-6,-9.925229E-2,-5.039673E-2,-6.062814E-1,2.5720224E-1,-4.1880637E-2,3.6649965E-2,-9.231424E-2,1.8565575E-2,8.2148395E-2,-4.542753E-2],"categories":[],"categories_nodes":[],"categories_segments":[],"categories_sizes":[],"default_left":[0,0,0,0,0,0,0,0,0,0,0,0,0,0,0],"id":27,"left_children":[1,-1,3,5,7,-1,9,11,13,-1,-1,-1,-1,-1,-1],"loss_changes":[8.765534E0,0E0,4.0381193E0,1.4383383E0,4.091819E0,0E0,6.5117043E-1,2.1326888E0,7.7701244E0,0E0,0E0,0E0,0E0,0E0,0E0],"parents":[2147483647,0,0,2,2,3,3,4,4,6,6,7,7,8,8],"right_children":[2,-1,4,6,8,-1,10,12,14,-1,-1,-1,-1,-1,-1],"split_conditions":[5.214241E0,8.937089E-2,2E0,5.68E2,6E0,-9.925229E-2,1.8E1,1.6E1,2.9E1,-4.1880637E-2,3.6649965E-2,-9.231424E-2,1.8565575E-2,8.2148395E-2,-4.542753E-2],"split_indices":[15,0,16,7,8,0,0,0,8,0,0,0,0,0,0],"split_type":[0,0,0,0,0,0,0,0,0,0,0,0,0,0,0],"sum_hessian":[4.06571E1,8.039756E0,3.2617344E1,8.3768635E0,2.424048E1,6.136533E0,2.2403312E0,6.816005E0,1.7424475E1,1.1868953E0,1.0534359E0,4.7498655E0,2.0661397E0,9.631218E0,7.7932568E0],"tree_param":{"num_deleted":"0","num_feature":"28","num_nodes":"15","size_leaf_vector":"1"}},{"base_weights":[1.8393472E-2,-2.0707507E-1,8.868299E-2,-3.526258E-1,4.7546643E-1,-1.6391297E-1,-1.1121086E-1,8.811919E-2,-5.128447E-2,-4.6817284E-2,7.571133E-2],"categories":[],"categories_nodes":[],"categories_segments":[],"categories_sizes":[],"default_left":[0,0,0,0,0,0,0,0,0,0,0],"id":28,"left_children":[1,3,-1,5,7,9,-1,-1,-1,-1,-1],"loss_changes":[8.026081E0,3.4070516E0,0E0,3.7520313E0,2.9208298E0,6.844643E0,0E0,0E0,0E0,0E0,0E0],"parents":[2147483647,0,0,1,1,3,3,4,4,5,5],"right_children":[2,4,-1,6,8,10,-1,-1,-1,-1,-1],"split_conditions":[4E0,6.19E2,8.868299E-2,4.67E2,1.27E2,1.68E2,-1.1121086E-1,8.811919E-2,-5.128447E-2,-4.6817284E-2,7.571133E-2],"split_indices":[17,7,0,7,8,7,0,0,0,0,0],"split_type":[0,0,0,0,0,0,0,0,0,0,0],"sum_hessian":[3.905228E1,3.1607668E1,7.444614E0,2.6450508E1,5.1571584E0,2.2160091E1,4.2904167E0,3.7330415E0,1.424117E0,1.7026945E1,5.133146E0],"tree_param":{"num_deleted":"0","num_feature":"28","num_nodes":"11","size_leaf_vector":"1"}},{"base_weights":[1.9258521E-2,8.770236E-2,-1.9386305E-1,-3.105636E-1,7.096618E-2,-8.4060615E-1,-1.13381065E-1,-1.1432518E-1,1.28724305E-2,5.5772897E-2,-6.508496E-2],"categories":[],"categories_nodes":[],"categories_segments":[],"categories_sizes":[],"default_left":[0,0,0,0,0,0,0,0,0,0,0],"id":29,"left_children":[1,-1,3,5,-1,7,9,-1,-1,-1,-1],"loss_changes":[7.254022E0,0E0,3.5795572E0,2.9261634E0,0E0,2.400988E0,8.380186E0,0E0,0E0,0E0,0E0],"parents":[2147483647,0,0,2,2,3,3,5,5,6,6],"right_children":[2,-1,4,6,-1,8,10,-1,-1,-1,-1],"split_conditions":[5.214241E0,8.770236E-2,1.3E1,3.6E1,7.096618E-2,1E0,3E0,-1.1432518E-1,1.28724305E-2,5.5772897E-2,-6.508496E-2],"split_indices":[15,0,16,7,0,24,22,0,0,0,0],"split_type":[0,0,0,0,0,0,0,0,0,0,0],"sum_hessian":[3.7750988E1,6.8930244E0,3.0857962E1,2.7909418E1,2.9485445E0,6.6826982E0,2.1226719E1,4.955928E0,1.7267703E0,9.422997E0,1.1803722E1],"tree_param":{"num_deleted":"0","num_feature":"28","num_nodes":"11","size_leaf_vector":"1"}},{"base_weights":[2.006335E-2,-1.7977762E-1,8.676051E-2,-7.003854E-1,1.4811108E-2,-8.9390926E-2,8.196302E-3,8.0154024E-2,-1.4767408E-1,-9.7430065E-2,3.5393733E-4],"categories":[],"categories_nodes":[],"categories_segments":[],"categories_sizes":[],"default_left":[0,0,0,0,0,0,0,0,0,0,0],"id":30,"left_children":[1,3,-1,5,7,-1,-1,-1,9,-1,-1],"loss_changes":[6.492691E0,3.16121E0,0E0,1.3576264E0,3.1377075E0,0E0,0E0,0E0,2.5559978E0,0E0,0E0],"parents":[2147483647,0,0,1,1,3,3,4,4,8,8],"right_children":[2,4,-1,6,8,-1,-1,-1,10,-1,-1],"split_conditions":[4E0,2E0,8.676051E-2,7E0,5.261378E0,-8.9390926E-2,8.196302E-3,8.0154024E-2,5.6014442E0,-9.7430065E-2,3.5393733E-4],"split_indices":[17,16,0,22,15,0,0,0,15,0,0],"split_type":[0,0,0,0,0,0,0,0,0,0,0],"sum_hessian":[3.641266E1,3.0102667E1,6.309993E0,7.483039E0,2.2619627E1,5.884769E0,1.5982697E0,3.1987503E0,1.9420877E1,2.16151E0,1.7259367E1],"tree_param":{"num_deleted":"0","num_feature":"28","num_nodes":"11","size_leaf_vector":"1"}},{"base_weights":[1.8661542E-2,8.566523E-2,-1.701953E-1,-3.1155816E-1,5.015362E-1,-8.617126E-2,-9.4791186E-1,8.68644E-2,-5.5442035E-2,-4.768711E-2,6.5956816E-2,-1.9035256E-2,-1.0695986E-1],"categories":[],"categories_nodes":[],"categories_segments":[],"categories_sizes":[],"default_left":[0,0,0,0,0,0,0,0,0,0,0,0,0],"id":31,"left_children":[1,-1,3,5,7,9,11,-1,-1,-1,-1,-1,-1],"loss_changes":[5.8768344E0,0E0,3.041721E0,3.6073163E0,2.6780782E0,6.168955E0,4.0732622E-1,0E0,0E0,0E0,0E0,0E0,0E0],"parents":[2147483647,0,0,2,2,3,3,4,4,5,5,6,6],"right_children":[2,-1,4,6,8,10,12,-1,-1,-1,-1,-1,-1],"split_conditions":[5.214241E0,8.566523E-2,6.19E2,2.8E1,2.499E3,1E2,1.4E4,8.68644E-2,-5.5442035E-2,-4.768711E-2,6.5956816E-2,-1.9035256E-2,-1.0695986E-1],"split_indices":[15,0,7,8,7,7,25,0,0,0,0,0,0],"split_type":[0,0,0,0,0,0,0,0,0,0,0,0,0],"sum_hessian":[3.5212723E1,5.825955E0,2.9386768E1,2.4720613E1,4.666155E0,1.9093424E1,5.627189E0,3.5940537E0,1.0721012E0,1.2765827E1,6.327597E0,1.1336912E0,4.493498E0],"tree_param":{"num_deleted":"0","num_feature":"28","num_nodes":"13","size_leaf_vector":"1"}},{"base_weights":[1.8402077E-2,-1.6131878E-1,8.4761195E-2,-6.806763E-1,2.5386816E-2,-9.024166E-2,1.4117821E-3,-5.240294E-1,2.2964898E-1,4.921145E-4,-1.5478137E-1,6.3898645E-2,-3.4336966E-2],"categories":[],"categories_nodes":[],"categories_segments":[],"categories_sizes":[],"default_left":[0,0,0,0,0,0,0,0,0,0,0,0,0],"id":32,"left_children":[1,3,-1,5,7,-1,-1,9,11,-1,-1,-1,-1],"loss_changes":[5.358614E0,2.8912263E0,0E0,1.2257309E0,2.6751564E0,0E0,0E0,3.5137682E0,4.275057E0,0E0,0E0,0E0,0E0],"parents":[2147483647,0,0,1,1,3,3,4,4,7,7,8,8],"right_children":[2,4,-1,6,8,-1,-1,10,12,-1,-1,-1,-1],"split_conditions":[4E0,2E0,8.4761195E-2,5.68E2,3.6E1,-9.024166E-2,1.4117821E-3,2.8E1,2.9E1,4.921145E-4,-1.5478137E-1,6.3898645E-2,-3.4336966E-2],"split_indices":[17,16,0,7,7,0,0,7,8,0,0,0,0],"split_type":[0,0,0,0,0,0,0,0,0,0,0,0,0],"sum_hessian":[3.403997E1,2.863841E1,5.4015617E0,6.873296E0,2.1765114E1,4.983886E0,1.8894104E0,5.4745135E0,1.62906E1,4.2657537E0,1.2087598E0,9.435326E0,6.855275E0],"tree_param":{"num_deleted":"0","num_feature":"28","num_nodes":"13","size_leaf_vector":"1"}},{"base_weights":[1.3935983E-2,8.380681E-2,-1.60247E-1,-7.408492E-1,6.195833E-4,-9.941418E-2,2.4975438E-3,-2.7270827E-1,7.006831E-1,-8.713771E-2,2.1496697E-3,-1.2609504E-2,8.6937904E-2],"categories":[],"categories_nodes":[],"categories_segments":[],"categories_sizes":[],"default_left":[0,0,0,0,0,0,0,0,0,0,0,0,0],"id":33,"left_children":[1,-1,3,5,7,-1,-1,9,11,-1,-1,-1,-1],"loss_changes":[4.996972E0,0E0,2.690705E0,1.2371848E0,4.6980023E0,0E0,0E0,3.1291487E0,1.0711617E0,0E0,0E0,0E0,0E0],"parents":[2147483647,0,0,2,2,3,3,4,4,7,7,8,8],"right_children":[2,-1,4,6,8,-1,-1,10,12,-1,-1,-1,-1],"split_conditions":[5.214241E0,8.380681E-2,5.413161E0,6E0,3E0,-9.941418E-2,2.4975438E-3,3.6E1,4E3,-8.713771E-2,2.1496697E-3,-1.2609504E-2,8.6937904E-2],"split_indices":[15,0,15,22,17,0,0,7,25,0,0,0,0],"split_type":[0,0,0,0,0,0,0,0,0,0,0,0,0],"sum_hessian":[3.2874477E1,5.070833E0,2.7803646E1,5.2499776E0,2.2553669E1,3.7211082E0,1.5288695E0,1.6659647E1,5.8940215E0,4.84299E0,1.1816657E1,1.0416123E0,4.8524094E0],"tree_param":{"num_deleted":"0","num_feature":"28","num_nodes":"13","size_leaf_vector":"1"}},{"base_weights":[1.285488E-2,8.260311E-2,-1.5105374E-1,-6.6416675E-1,2.3821685E-2,-9.109157E-2,4.7671054E-3,-4.0820026E-1,2.480212E-1,-6.718257E-2,2.3914956E-2,7.470125E-2,-3.7963655E-2],"categories":[],"categories_nodes":[],"categories_segments":[],"categories_sizes":[],"default_left":[0,0,0,0,0,0,0,0,0,0,0,0,0],"id":34,"left_children":[1,-1,3,5,7,-1,-1,9,11,-1,-1,-1,-1],"loss_changes":[4.503605E0,0E0,2.5450659E0,1.3079474E0,2.2309518E0,0E0,0E0,1.5071747E0,5.0120983E0,0E0,0E0,0E0,0E0],"parents":[2147483647,0,0,2,2,3,3,4,4,7,7,8,8],"right_children":[2,-1,4,6,8,-1,-1,10,12,-1,-1,-1,-1],"split_conditions":[5.214241E0,8.260311E-2,2E0,5.68E2,6E0,-9.109157E-2,4.7671054E-3,1.6E1,2.9E1,-6.718257E-2,2.3914956E-2,7.470125E-2,-3.7963655E-2],"split_indices":[15,0,16,7,8,0,0,0,8,0,0,0,0],"split_type":[0,0,0,0,0,0,0,0,0,0,0,0,0],"sum_hessian":[3.1852737E1,4.665732E0,2.7187006E1,6.1993017E0,2.0987705E1,4.3958664E0,1.8034354E0,6.8901014E0,1.4097603E1,4.86932E0,2.0207815E0,7.7478566E0,6.3497467E0],"tree_param":{"num_deleted":"0","num_feature":"28","num_nodes":"13","size_leaf_vector":"1"}},{"base_weights":[1.2272697E-2,-1.4355896E-1,8.150839E-2,-2.6768145E-1,4.742955E-1,-3.7103534E-1,6.905085E-2,8.301261E-2,-4.4408213E-2,-1.869384E-2,-1.2478273E-1],"categories":[],"categories_nodes":[],"categories_segments":[],"categories_sizes":[],"default_left":[0,0,0,0,0,0,0,0,0,0,0],"id":35,"left_children":[1,3,-1,5,7,9,-1,-1,-1,-1,-1],"loss_changes":[4.095614E0,2.2346292E0,0E0,2.5859272E0,1.9889556E0,3.2992709E0,0E0,0E0,0E0,0E0,0E0],"parents":[2147483647,0,0,1,1,3,3,4,4,5,5],"right_children":[2,4,-1,6,8,10,-1,-1,-1,-1,-1],"split_conditions":[4E0,6.19E2,8.150839E-2,7.9072547E0,3.159E3,6.6561418E0,6.905085E-2,8.301261E-2,-4.4408213E-2,-1.869384E-2,-1.2478273E-1],"split_indices":[17,7,0,15,7,15,0,0,0,0,0],"split_type":[0,0,0,0,0,0,0,0,0,0,0],"sum_hessian":[3.08025E1,2.648311E1,4.3193903E0,2.25248E1,3.9583118E0,2.0884855E1,1.6399431E0,2.9221883E0,1.0361234E0,1.8263367E1,2.6214883E0],"tree_param":{"num_deleted":"0","num_feature":"28","num_nodes":"11","size_leaf_vector":"1"}},{"base_weights":[1.3330331E-2,8.0514304E-2,-1.3594687E-1,-6.95407E-1,1.5996398E-2,-9.487804E-2,3.248904E-3,-2.3375134E-1,6.763506E-1,-3.757429E-2,6.8265475E-2,8.651856E-2,-1.3918317E-2],"categories":[],"categories_nodes":[],"categories_segments":[],"categories_sizes":[],"default_left":[0,0,0,0,0,0,0,0,0,0,0,0,0],"id":36,"left_children":[1,-1,3,5,7,-1,-1,9,11,-1,-1,-1,-1],"loss_changes":[3.7829165E0,0E0,2.3066547E0,1.0986953E0,3.8216994E0,0E0,0E0,2.4505358E0,1.0987573E0,0E0,0E0,0E0,0E0],"parents":[2147483647,0,0,2,2,3,3,4,4,7,7,8,8],"right_children":[2,-1,4,6,8,-1,-1,10,12,-1,-1,-1,-1],"split_conditions":[5.214241E0,8.0514304E-2,5.413161E0,6E0,3E0,-9.487804E-2,3.248904E-3,7.407532E0,6.4855103E0,-3.757429E-2,6.8265475E-2,8.651856E-2,-1.3918317E-2],"split_indices":[15,0,15,22,17,0,0,15,15,0,0,0,0],"split_type":[0,0,0,0,0,0,0,0,0,0,0,0,0],"sum_hessian":[3.0078445E1,4.0741696E0,2.6004276E1,4.790125E0,2.1214151E1,3.3281667E0,1.461958E0,1.5861362E1,5.3527884E0,1.4244279E1,1.6170828E0,4.2969556E0,1.0558329E0],"tree_param":{"num_deleted":"0","num_feature":"28","num_nodes":"13","size_leaf_vector":"1"}},{"base_weights":[1.6080106E-2,7.919593E-2,-1.2443168E-1,-6.1894E-1,3.471754E-2,-8.780876E-2,7.837362E-3,-9.5327996E-2,7.2238624E-2,2.469355E-2,-5.4682203E-2],"categories":[],"categories_nodes":[],"categories_segments":[],"categories_sizes":[],"default_left":[0,0,0,0,0,0,0,0,0,0,0],"id":37,"left_children":[1,-1,3,5,7,-1,-1,9,-1,-1,-1],"loss_changes":[3.386847E0,0E0,2.0993185E0,1.24003E0,1.9397418E0,0E0,0E0,2.990244E0,0E0,0E0,0E0],"parents":[2147483647,0,0,2,2,3,3,4,4,7,7],"right_children":[2,-1,4,6,8,-1,-1,10,-1,-1,-1],"split_conditions":[5.214241E0,7.919593E-2,2E0,5.68E2,2.8E4,-8.780876E-2,7.837362E-3,9E3,7.2238624E-2,2.469355E-2,-5.4682203E-2],"split_indices":[15,0,16,7,25,0,0,25,0,0,0],"split_type":[0,0,0,0,0,0,0,0,0,0,0],"sum_hessian":[2.9162334E1,3.7606263E0,2.5401707E1,5.4812665E0,1.992044E1,3.807146E0,1.6741204E0,1.747677E1,2.44367E0,1.0198601E1,7.27817E0],"tree_param":{"num_deleted":"0","num_feature":"28","num_nodes":"11","size_leaf_vector":"1"}},{"base_weights":[1.6544446E-2,-1.4944497E-1,6.263654E-1,-8.2613096E-2,1.23405885E-2,8.628105E-2,-1.4301787E-2,1.9950695E-1,-8.097321E-2,-2.9696224E-2,5.768013E-2],"categories":[],"categories_nodes":[],"categories_segments":[],"categories_sizes":[],"default_left":[0,0,0,0,0,0,0,0,0,0,0],"id":38,"left_children":[1,3,5,-1,7,-1,-1,9,-1,-1,-1],"loss_changes":[3.063253E0,2.6232014E0,1.3003185E0,0E0,3.2769578E0,0E0,0E0,3.4109173E0,0E0,0E0,0E0],"parents":[2147483647,0,0,1,1,2,2,4,4,7,7],"right_children":[2,4,6,-1,8,-1,-1,10,-1,-1,-1],"split_conditions":[6.19E2,2E0,2.39E2,-8.2613096E-2,5.5E2,8.628105E-2,-1.4301787E-2,6E0,-8.097321E-2,-2.9696224E-2,5.768013E-2],"split_indices":[7,16,8,0,7,0,0,8,0,0,0],"split_type":[0,0,0,0,0,0,0,0,0,0,0],"sum_hessian":[2.8337418E1,2.2867867E1,5.469552E0,3.620093E0,1.9247772E1,4.090911E0,1.3786409E0,1.6295082E1,2.95269E0,7.128216E0,9.166867E0],"tree_param":{"num_deleted":"0","num_feature":"28","num_nodes":"11","size_leaf_vector":"1"}},{"base_weights":[1.3450697E-2,7.731477E-2,-1.1946204E-1,-6.3801366E-1,1.751505E-2,-8.879641E-2,4.6210946E-3,6.849693E-1,-1.9308469E-1,7.618059E-2,1.9546587E-2,-3.2634627E-2,6.339238E-2],"categories":[],"categories_nodes":[],"categories_segments":[],"categories_sizes":[],"default_left":[0,0,0,0,0,0,0,0,0,0,0,0,0],"id":39,"left_children":[1,-1,3,5,7,-1,-1,9,11,-1,-1,-1,-1],"loss_changes":[2.9667761E0,0E0,1.7936199E0,9.423816E-1,3.0593984E0,0E0,0E0,4.7219753E-2,2.0373867E0,0E0,0E0,0E0,0E0],"parents":[2147483647,0,0,2,2,3,3,4,4,7,7,8,8],"right_children":[2,-1,4,6,8,-1,-1,10,12,-1,-1,-1,-1],"split_conditions":[5.214241E0,7.731477E-2,5.413161E0,6E0,5.9586167E0,-8.879641E-2,4.6210946E-3,9E0,2.8E4,7.618059E-2,1.9546587E-2,-3.2634627E-2,6.339238E-2],"split_indices":[15,0,15,22,15,0,0,12,25,0,0,0,0],"split_type":[0,0,0,0,0,0,0,0,0,0,0,0,0],"sum_hessian":[2.7467043E1,3.3726776E0,2.4094366E1,4.270354E0,1.982401E1,2.9096706E0,1.3606831E0,4.2145042E0,1.5609508E1,3.1619022E0,1.0526019E0,1.3964673E1,1.6448344E0],"tree_param":{"num_deleted":"0","num_feature":"28","num_nodes":"13","size_leaf_vector":"1"}},{"base_weights":[1.711756E-2,-1.13392115E-1,7.441776E-2,-1.9094288E-1,6.542199E-2,-2.9231869E-2,-1.133847E-1,-1.4331967E-2,8.5547745E-2],"categories":[],"categories_nodes":[],"categories_segments":[],"categories_sizes":[],"default_left":[0,0,0,0,0,0,0,0,0],"id":40,"left_children":[1,3,-1,5,-1,7,-1,-1,-1],"loss_changes":[2.723941E0,1.5805106E0,0E0,3.4711454E0,0E0,2.206322E0,0E0,0E0,0E0],"parents":[2147483647,0,0,1,1,3,3,5,5],"right_children":[2,4,-1,6,-1,8,-1,-1,-1],"split_conditions":[1.3E1,7.9072547E0,7.441776E-2,6.6561418E0,6.542199E-2,6.601378E0,-1.133847E-1,-1.4331967E-2,8.5547745E-2],"split_indices":[16,15,0,15,0,15,0,0,0],"split_type":[0,0,0,0,0,0,0,0,0],"sum_hessian":[2.6817501E1,2.3451857E1,3.3656454E0,2.198227E1,1.469587E0,1.9644224E1,2.3380442E0,1.8142641E1,1.5015829E0],"tree_param":{"num_deleted":"0","num_feature":"28","num_nodes":"9","size_leaf_vector":"1"}},{"base_weights":[1.9578228E-2,7.541365E-2,-1.03097305E-1,-5.7009554E-1,3.657015E-2,-8.297657E-2,7.690606E-3,-3.1292737E-1,2.3994659E-1,-7.055359E-2,1.697178E-2,7.395204E-2,-2.9678037E-2],"categories":[],"categories_nodes":[],"categories_segments":[],"categories_sizes":[],"default_left":[0,0,0,0,0,0,0,0,0,0,0,0,0],"id":41,"left_children":[1,-1,3,5,7,-1,-1,9,11,-1,-1,-1,-1],"loss_changes":[2.5459983E0,0E0,1.6091121E0,1.0157999E0,1.4742439E0,0E0,0E0,1.5740762E0,3.7077556E0,0E0,0E0,0E0,0E0],"parents":[2147483647,0,0,2,2,3,3,4,4,7,7,8,8],"right_children":[2,-1,4,6,8,-1,-1,10,12,-1,-1,-1,-1],"split_conditions":[5.214241E0,7.541365E-2,2E0,5.68E2,6E0,-8.297657E-2,7.690606E-3,2E0,3E0,-7.055359E-2,1.697178E-2,7.395204E-2,-2.9678037E-2],"split_indices":[15,0,16,7,8,0,0,22,22,0,0,0,0],"split_type":[0,0,0,0,0,0,0,0,0,0,0,0,0],"sum_hessian":[2.6390802E1,3.040063E0,2.3350739E1,4.666343E0,1.8684395E1,3.1283286E0,1.5380145E0,6.6749663E0,1.200943E1,3.4261487E0,3.2488174E0,6.024304E0,5.9851255E0],"tree_param":{"num_deleted":"0","num_feature":"28","num_nodes":"13","size_leaf_vector":"1"}},{"base_weights":[1.8359488E-2,-9.825601E-2,7.4071705E-2,-1.7410193E-1,6.435198E-2,-1.060274E-2,-1.1381066E-1,-1.1332608E-2,8.1671275E-2],"categories":[],"categories_nodes":[],"categories_segments":[],"categories_sizes":[],"default_left":[0,0,0,0,0,0,0,0,0],"id":42,"left_children":[1,3,-1,5,-1,7,-1,-1,-1],"loss_changes":[2.3196137E0,1.4537365E0,0E0,3.5220692E0,0E0,1.8075964E0,0E0,0E0,0E0],"parents":[2147483647,0,0,1,1,3,3,5,5],"right_children":[2,4,-1,6,-1,8,-1,-1,-1],"split_conditions":[4E0,7.9072547E0,7.4071705E-2,6.6561418E0,6.435198E-2,6.601378E0,-1.1381066E-1,-1.1332608E-2,8.1671275E-2],"split_indices":[17,15,0,15,0,15,0,0,0],"split_type":[0,0,0,0,0,0,0,0,0],"sum_hessian":[2.567242E1,2.2847895E1,2.824525E0,2.142273E1,1.4251648E0,1.9180616E1,2.2421134E0,1.7829805E1,1.3508118E0],"tree_param":{"num_deleted":"0","num_feature":"28","num_nodes":"9","size_leaf_vector":"1"}},{"base_weights":[2.0690043E-2,-9.637376E-2,7.133122E-2,6.031782E-2,-1.7237048E-1,-2.5555402E-1,6.258871E-2,-1.0741695E-2,-1.04055524E-1],"categories":[],"categories_nodes":[],"categories_segments":[],"categories_sizes":[],"default_left":[0,0,0,0,0,0,0,0,0],"id":43,"left_children":[1,3,-1,-1,5,7,-1,-1,-1],"loss_changes":[2.1982696E0,1.3452294E0,0E0,0E0,1.6100163E0,2.2706091E0,0E0,0E0,0E0],"parents":[2147483647,0,0,1,1,4,4,5,5],"right_children":[2,4,-1,-1,6,8,-1,-1,-1],"split_conditions":[1.3E1,5.214241E0,7.133122E-2,6.031782E-2,7.9072547E0,6.6561418E0,6.258871E-2,-1.0741695E-2,-1.04055524E-1],"split_indices":[16,15,0,0,15,15,0,0,0],"split_type":[0,0,0,0,0,0,0,0,0],"sum_hessian":[2.5264177E1,2.2347895E1,2.916282E0,1.5101374E0,2.0837757E1,1.9486952E1,1.350805E0,1.7349733E1,2.1372197E0],"tree_param":{"num_deleted":"0","num_feature":"28","num_nodes":"9","size_leaf_vector":"1"}},{"base_weights":[2.228173E-2,-1.1512158E-1,5.730289E-1,6.832987E-2,-6.532444E-1,8.204868E-2,-1.8780272E-2,-2.647317E-1,6.8145984E-1,-7.793138E-2,-9.953382E-3,6.554721E-4,-7.755678E-2,1.435966E-2,8.007925E-2],"categories":[],"categories_nodes":[],"categories_segments":[],"categories_sizes":[],"default_left":[0,0,0,0,0,0,0,0,0,0,0,0,0,0,0],"id":44,"left_children":[1,3,5,7,9,-1,-1,11,13,-1,-1,-1,-1,-1,-1],"loss_changes":[2.023808E0,2.170926E0,1.1581793E0,3.6454544E0,3.1129694E-1,0E0,0E0,1.6286497E0,2.8632903E-1,0E0,0E0,0E0,0E0,0E0,0E0],"parents":[2147483647,0,0,1,1,2,2,3,3,4,4,7,7,8,8],"right_children":[2,4,6,8,10,-1,-1,12,14,-1,-1,-1,-1,-1,-1],"split_conditions":[6.19E2,2.8E1,3.18E3,1E2,9E0,8.204868E-2,-1.8780272E-2,1E0,6E3,-7.793138E-2,-9.953382E-3,6.554721E-4,-7.755678E-2,1.435966E-2,8.007925E-2],"split_indices":[7,8,7,7,26,0,0,13,25,0,0,0,0,0,0],"split_type":[0,0,0,0,0,0,0,0,0,0,0,0,0,0,0],"sum_hessian":[2.4871862E1,2.0538725E1,4.3331375E0,1.5968071E1,4.570654E0,3.2105193E0,1.1226182E0,1.0715485E1,5.2525864E0,3.391121E0,1.1795329E0,7.6434803E0,3.0720048E0,1.3538338E0,3.8987525E0],"tree_param":{"num_deleted":"0","num_feature":"28","num_nodes":"15","size_leaf_vector":"1"}},{"base_weights":[2.083504E-2,-5.1847965E-1,1.5678902E-1,-7.469644E-2,1.0727936E-2,7.807487E-2,1.4940376E-3,-7.057261E-2,9.592806E-2,-1.3361618E-2,6.146266E-2],"categories":[],"categories_nodes":[],"categories_segments":[],"categories_sizes":[],"default_left":[0,0,0,0,0,0,0,0,0,0,0],"id":45,"left_children":[1,3,5,-1,-1,-1,7,-1,9,-1,-1],"loss_changes":[1.9339068E0,8.406596E-1,2.0286102E0,0E0,0E0,0E0,1.25481E0,0E0,2.0539963E0,0E0,0E0],"parents":[2147483647,0,0,1,1,2,2,6,6,8,8],"right_children":[2,4,6,-1,-1,-1,8,-1,10,-1,-1],"split_conditions":[2E0,7E0,5.261378E0,-7.469644E-2,1.0727936E-2,7.807487E-2,5.3030877E0,-7.057261E-2,3E0,-1.3361618E-2,6.146266E-2],"split_indices":[16,22,15,0,0,0,15,0,17,0,0],"split_type":[0,0,0,0,0,0,0,0,0,0,0],"sum_hessian":[2.4266844E1,4.3192415E0,1.9947601E1,3.022087E0,1.2971543E0,3.1726582E0,1.6774944E1,1.2135326E0,1.5561412E1,1.1302165E1,4.2592463E0],"tree_param":{"num_deleted":"0","num_feature":"28","num_nodes":"11","size_leaf_vector":"1"}},{"base_weights":[1.9187095E-2,6.977406E-2,-8.1805766E-2,-5.683757E-1,4.4226885E-2,-8.0995105E-2,4.407042E-3,6.578658E-2,-1.48847E-1,-2.6273955E-2,6.0654342E-2],"categories":[],"categories_nodes":[],"categories_segments":[],"categories_sizes":[],"default_left":[0,0,0,0,0,0,0,0,0,0,0],"id":46,"left_children":[1,-1,3,5,7,-1,-1,-1,9,-1,-1],"loss_changes":[1.7439091E0,0E0,1.39394E0,7.257947E-1,2.3083096E0,0E0,0E0,0E0,1.450458E0,0E0,0E0],"parents":[2147483647,0,0,2,2,3,3,4,4,8,8],"right_children":[2,-1,4,6,8,-1,-1,-1,10,-1,-1],"split_conditions":[5.214241E0,6.977406E-2,5.413161E0,6E0,5.9586167E0,-8.0995105E-2,4.407042E-3,6.578658E-2,7.9072547E0,-2.6273955E-2,6.0654342E-2],"split_indices":[15,0,15,22,15,0,0,0,15,0,0],"split_type":[0,0,0,0,0,0,0,0,0,0,0],"sum_hessian":[2.361481E1,2.2938719E0,2.1320938E1,3.664352E0,1.7656586E1,2.3965592E0,1.2677927E0,3.649668E0,1.4006919E1,1.273848E1,1.2684393E0],"tree_param":{"num_deleted":"0","num_feature":"28","num_nodes":"11","size_leaf_vector":"1"}},{"base_weights":[2.1740198E-2,-5.007556E-1,1.497108E-1,-7.470458E-2,9.248274E-3,7.556142E-2,8.826652E-3,-9.042792E-2,6.1757702E-2,1.231402E-2,-6.433148E-2],"categories":[],"categories_nodes":[],"categories_segments":[],"categories_sizes":[],"default_left":[0,0,0,0,0,0,0,0,0,0,0],"id":47,"left_children":[1,3,5,-1,-1,-1,7,9,-1,-1,-1],"loss_changes":[1.6900144E0,7.97027E-1,1.7152553E0,0E0,0E0,0E0,1.105864E0,1.9465566E0,0E0,0E0,0E0],"parents":[2147483647,0,0,1,1,2,2,6,6,7,7],"right_children":[2,4,6,-1,-1,-1,8,10,-1,-1,-1],"split_conditions":[2E0,5.68E2,5.261378E0,-7.470458E-2,9.248274E-3,7.556142E-2,2.8E4,1.7E4,6.1757702E-2,1.231402E-2,-6.433148E-2],"split_indices":[16,7,15,0,0,0,25,25,0,0,0],"split_type":[0,0,0,0,0,0,0,0,0,0,0],"sum_hessian":[2.3154152E1,3.982167E0,1.9171986E1,2.6307228E0,1.3514442E0,2.7936978E0,1.6378286E1,1.4814319E1,1.5639683E0,1.1247091E1,3.5672278E0],"tree_param":{"num_deleted":"0","num_feature":"28","num_nodes":"11","size_leaf_vector":"1"}},{"base_weights":[2.0975526E-2,-9.970206E-2,5.396426E-1,-7.249926E-2,3.0501705E-2,7.735347E-2,-1.50271375E-2,1.8161806E-1,-6.9950186E-2,-5.9886263E-3,7.553596E-2],"categories":[],"categories_nodes":[],"categories_segments":[],"categories_sizes":[],"default_left":[0,0,0,0,0,0,0,0,0,0,0],"id":48,"left_children":[1,3,5,-1,7,-1,-1,9,-1,-1,-1],"loss_changes":[1.5276586E0,1.6460764E0,8.5860634E-1,0E0,2.0541046E0,0E0,0E0,2.1605878E0,0E0,0E0,0E0],"parents":[2147483647,0,0,1,1,2,2,4,4,7,7],"right_children":[2,4,6,-1,8,-1,-1,10,-1,-1,-1],"split_conditions":[6.19E2,2E0,2.26E2,-7.249926E-2,5.5E2,7.735347E-2,-1.50271375E-2,1.47E2,-6.9950186E-2,-5.9886263E-3,7.553596E-2],"split_indices":[7,16,8,0,7,0,0,7,0,0,0],"split_type":[0,0,0,0,0,0,0,0,0,0,0],"sum_hessian":[2.2547213E1,1.8946686E1,3.600528E0,2.4780345E0,1.646865E1,2.5984173E0,1.0021107E0,1.426657E1,2.2020807E0,1.0670621E1,3.5959496E0],"tree_param":{"num_deleted":"0","num_feature":"28","num_nodes":"11","size_leaf_vector":"1"}},{"base_weights":[1.9218817E-2,-1.4513566E-1,3.984518E-1,-6.1832166E-1,7.016769E-2,6.313392E-1,-1.2743632E-1,1.1813331E-2,-9.37907E-1,6.244196E-1,-2.44368E-1,1.6663061E-2,7.6428846E-2,-2.3090651E-2,3.696068E-3,-3.587961E-2,-1.18530385E-1,2.9010528E-3,7.847666E-2,2.3286775E-2,-6.395201E-2],"categories":[],"categories_nodes":[],"categories_segments":[],"categories_sizes":[],"default_left":[0,0,0,0,0,0,0,0,0,0,0,0,0,0,0,0,0,0,0,0,0],"id":49,"left_children":[1,3,5,7,9,11,13,-1,15,17,19,-1,-1,-1,-1,-1,-1,-1,-1,-1,-1],"loss_changes":[1.4880651E0,1.7490082E0,9.628663E-1,1.3670008E0,2.3150659E0,1.9153881E-1,6.0303833E-2,0E0,1.2401581E-1,4.3284023E-1,1.7767925E0,0E0,0E0,0E0,0E0,0E0,0E0,0E0,0E0,0E0,0E0],"parents":[2147483647,0,0,1,1,2,2,3,3,4,4,5,5,6,6,8,8,9,9,10,10],"right_children":[2,4,6,8,10,12,14,-1,16,18,20,-1,-1,-1,-1,-1,-1,-1,-1,-1,-1],"split_conditions":[3E0,3.6E1,4E0,2E3,1E0,3E0,4E0,1.1813331E-2,2.1E1,4E3,5.9024587E0,1.6663061E-2,7.6428846E-2,-2.3090651E-2,3.696068E-3,-3.587961E-2,-1.18530385E-1,2.9010528E-3,7.847666E-2,2.3286775E-2,-6.395201E-2],"split_indices":[17,7,3,25,24,26,26,0,7,25,15,0,0,0,0,0,0,0,0,0,0],"split_type":[0,0,0,0,0,0,0,0,0,0,0,0,0,0,0,0,0,0,0,0,0],"sum_hessian":[2.1946684E1,1.5741724E1,6.2049594E0,4.3373623E0,1.1404362E1,4.1615257E0,2.043434E0,1.5033605E0,2.8340018E0,3.7721472E0,7.6322145E0,1.4269897E0,2.734536E0,1.0058155E0,1.0376185E0,1.5817347E0,1.252267E0,1.0508811E0,2.721266E0,3.6430697E0,3.9891448E0],"tree_param":{"num_deleted":"0","num_feature":"28","num_nodes":"21","size_leaf_vector":"1"}}]},"name":"gbtree"},"learner_model_param":{"base_score":"[9.427341E-1]","boost_from_average":"1","num_class":"0","num_feature":"28","num_target":"1"},"objective":{"name":"binary:logistic","reg_loss_param":{"scale_pos_weight":"1"}}},"version":[3,2,0]}